{"weights": [[-1.3920278957137964, 2.902683727976829, -1.258808098908594, -1.2288137672022017, -0.6898824722008587, 1.8231428447540248, -2.6531347127323066, -1.2352025231708832, -2.0510933868770334, -1.0006843355275186], [3.495322645249001, -1.2158681633429889, -1.3366578959635234, -3.359571414991595, -1.388993219216141, 2.0201474806758, -1.6648612786365642, -0.6776367373783968, -1.8054713925577748, -0.4676459214184708], [-1.5876141291453623, 2.169097427829627, 2.397239848126822, 2.67947405374523, -1.7911877428775766, -1.0726405317114733, -2.869867692125071, -0.8601076657999367, -1.6598390237277303, -2.869174422255001], [1.6631003743684665, -3.3551281652587117, -3.85297254787874, 2.4079474723724346, 1.2383732523329647, 1.525613080304593, -3.110941234570164, 0.11763940151481272, 1.209166486653445, 1.7756467550734363], [1.1764151513817385, -0.38798523184716993, -1.1099098861205876, -0.3518498216953003, -1.132909233192089, 1.0688265097847762, -0.8849490496563086, -1.8670486724205504, -1.5361386113785158, 0.3322996829220338], [1.6872776734331691, -3.3059406427792797, 3.7306868502153563, 1.4885737630871496, -1.6647029377023106, 1.7892673154186434, -0.21790009549107617, -2.2266672502850353, -2.3670047507420273, -1.6419369120271534], [-2.0790248913440013, 0.0371279748107494, -3.2020664418668603, -1.0056661648599736, -0.06771646016334079, 3.260988543278734, 2.3214245640019855, 0.7700555931276035, -2.9735111952444853, -0.17797526682682024], [-2.486444311633912, -2.7033179435583805, -0.17928235539358897, -0.5197388271955071, -1.7974830706513631, -2.2640086541731326, -1.112540585604991, -1.1696940628498405, -2.3623628768498355, -0.8960395664806866], [1.5670646967658384, 1.4348361185604006, -2.051003474772488, 2.4418585684174774, -1.6743994225530594, 2.488302972849446, 1.8966572635190777, -5.165758526956977, 4.3231730150203385, -2.082940730770101], [-1.8113330486807324, 2.1346148251216617, -1.5253287926643502, -0.5669864013546934, 2.827737069534227, -0.0623823079574959, -3.0447633294855336, -1.8042867988127687, -2.3482971926345657, 1.4133247068638106], [-0.04255736884401679, -1.347090160866633, 0.38330953818165064, -1.1369423072560885, 5.423232384351309, 0.15665180194517211, 1.5611294676678558, -2.069595639530741, -0.3882902733956135, -4.98658956654265], [-1.7077169267183216, -0.8118001687246965, -1.1511060505906265, -1.4189749599306178, -1.9969298833256284, -2.3898148559209083, -0.9679032810460453, 0.8404704898665338, -1.3224703500497728, 0.754051706490114], [1.3619495060419078, -0.2806819828338344, 0.41618059688385245, -0.9740469338907298, -1.7040916978604304, 1.7933646562593037, -2.944725111386975, 3.8192849966671827, 1.1607760510495135, -3.814297953391159], [-1.367133908421198, 0.5318374839448217, 1.9822978997481544, -2.634514547102863, 0.3911964983327635, 1.706681651868815, 1.1509204430233555, -1.8692004166173841, 2.9087529250124993, 0.4169633645085698], [3.9925177657460744, -0.6817854585048911, -0.711072590996223, -1.9398142668406917, -0.48637685763489374, -6.058856179725454, 2.530154509120847, -1.4073632469547104, -2.9432382493628078, 1.8323072844992911], [-1.5222104996148096, 0.5656919462120255, -1.8901508378442646, 0.4271141328246808, -1.2851672960564435, -1.1541141014049991, -0.07432825273159469, 0.19872412523866395, -0.16500251828348725, -0.39117780909283184]], "biases": [[-3.499955940298348, -2.015185113519797, -1.4956484700838848, -3.7544060402020856, -1.7918592348042908, -4.902315118438202, -2.154383171905336, -0.7580618934346725, -2.7831873853671367, -0.6096885700294753]]}